tree
version=v3
num_class=1
num_tree_per_iteration=1
label_index=0
max_feature_idx=23
objective=binary sigmoid:1
feature_names=Local_therapy Age Gender Comorbidity Etiology Ascites Tumor_diameter Tumor_number Vascular_invasion Metastasis BCLC ALB ALT AST TBIL ALBI INR PLT CRP Neu Ly NLR AFP PIVKA_II
feature_infos=[0:1] [1:2] [0:1] [0:1] [0:2] [0:1] [1:3] [1:2] [0:1] [0:1] [1:3] [1:2] [1:2] [1:2] [1:2] [1:3] [1:2] [0:1] [1:2] [1:2] [1:2] [1:2] [1:2] [1:2]
tree_sizes=874 728 848 735 844 637 719 941 842 850 649 908 654 743 845 952 715 721 639 656 842 659 843 816 853 737 886 656 865 847 934 708 657 896 870 729 863 741 738 933 714 747 934 721 804 741 912 959 726 724 814 727 745 726 895 743 749 850 744 855 948 835 897 848 844 753 833 845 930 868 843 856 962 839 735 942 718 852 945 912

Tree=0
num_leaves=7
num_cat=0
split_feature=10 19 22 0 15 0
split_gain=43.2658 21.3991 10.9331 1.30126 1.07652 0.753718
threshold=2.5000000000000004 1.5000000000000002 1.5000000000000002 1.0000000180025095e-35 2.5000000000000004 1.0000000180025095e-35
decision_type=2 2 2 2 2 2
left_child=1 2 -1 -3 5 -2
right_child=4 3 -4 -5 -6 -7
leaf_value=-0.16583649601198636 -0.059714569166654213 -0.048684939149735172 -0.11381440282043216 -0.090971778205726633 -0.090971778205726633 -0.086953759296974242
leaf_weight=13.222623705863951 64.366734266281128 9.4803717136383039 64.865701198577881 2.9938015937805167 2.2453511953353873 7.4845039844512931
leaf_count=53 258 38 260 12 9 30
internal_value=-0.0909718 -0.114043 -0.124091 -0.0570685 -0.0628413 -0.0617716
internal_weight=0 90.5625 78.0883 12.4742 74.0966 71.8512
internal_count=660 363 313 50 297 288
is_linear=0
shrinkage=1


Tree=1
num_leaves=6
num_cat=0
split_feature=6 18 6 10 11
split_gain=41.2851 21.3496 11.8222 6.90663 0.00696188
threshold=1.5000000000000002 1.5000000000000002 2.5000000000000004 2.5000000000000004 1.5000000000000002
decision_type=2 2 2 2 2
left_child=3 2 -2 -1 -5
right_child=1 -3 -4 4 -6
leaf_value=-0.06088153582719117 -0.011417478006350247 0.056778915913730459 0.020768032323381497 0.0022307602142630717 0
leaf_weight=26.129025891423229 61.352259323000908 21.470587179064751 50.664503797888756 2.4975234866142264 2.497274249792099
leaf_count=105 246 86 203 10 10
internal_value=0 0.0121716 0.00275238 -0.050919 0
internal_weight=0 133.487 112.017 31.1238 4.9948
internal_count=660 535 449 125 20
is_linear=0
shrinkage=0.05


Tree=2
num_leaves=7
num_cat=0
split_feature=10 19 0 4 0 16
split_gain=36.8377 18.7561 7.7961 6.07396 1.15356 0.77044
threshold=2.5000000000000004 1.5000000000000002 1.0000000180025095e-35 1.0000000180025095e-35 1.0000000180025095e-35 1.5000000000000002
decision_type=2 2 2 2 2 2
left_child=1 2 -1 -2 -3 -5
right_child=3 4 -4 5 -6 -7
leaf_value=-0.017179373809043628 -0.017900516095061946 0.039736905342652319 -0.053077091908380836 0.019030090261289906 0 0.037159591182112768
leaf_weight=50.79778166115284 5.2457886487245551 9.4934148341417295 27.027755975723267 30.725114300847054 2.993916615843772 38.225374728441238
leaf_count=204 21 38 109 123 12 153
internal_value=0 -0.0213317 -0.0307957 0.0259259 0.0318542 0.0301832
internal_weight=0 90.3129 77.8255 74.1963 12.4873 68.9505
internal_count=660 363 313 297 50 276
is_linear=0
shrinkage=0.05


Tree=3
num_leaves=6
num_cat=0
split_feature=22 18 10 7 21
split_gain=33.925 25.6886 14.8971 1.45017 1.36626
threshold=1.5000000000000002 1.5000000000000002 2.5000000000000004 1.5000000000000002 1.5000000000000002
decision_type=2 2 2 2 2
left_child=4 2 -2 -3 -1
right_child=1 3 -4 -5 -6
leaf_value=-0.075641443373280937 -0.016914254210520778 0.026654277626676055 0.016912084066207311 0.072545369688672201 0
leaf_weight=13.032780095934864 69.36540175974369 9.2449111640453339 59.226512759923935 11.995309084653854 1.4741078913211829
leaf_count=53 279 37 237 48 6
internal_value=0 0.00725441 -0.000938503 0.0569158 -0.0704092
internal_weight=0 149.832 128.592 21.2402 14.5069
internal_count=660 601 516 85 59
is_linear=0
shrinkage=0.05


Tree=4
num_leaves=7
num_cat=0
split_feature=6 6 8 8 12 13
split_gain=33.7427 13.6694 10.3107 8.11328 1.09451 0.473488
threshold=1.5000000000000002 2.5000000000000004 1.0000000180025095e-35 1.0000000180025095e-35 1.5000000000000002 1.5000000000000002
decision_type=2 2 2 2 2 2
left_child=3 2 -2 -1 -3 -5
right_child=1 4 -4 5 -6 -7
leaf_value=-0.055746754187906249 -0.018090054024386074 0.037916119444709552 0.022735869072020399 0 0.018457814158900462 0.023722500278085409
leaf_weight=27.251406937837604 45.961745202541351 25.216926604509354 21.485178336501122 1.2485332489013665 40.688701868057251 2.2496523559093475
leaf_count=111 185 101 86 5 163 9
internal_value=0 0.0109801 -0.00421232 -0.0463331 0.0271057 0.011975
internal_weight=0 133.353 67.4469 30.7496 65.9056 3.49819
internal_count=660 535 271 125 264 14
is_linear=0
shrinkage=0.05


Tree=5
num_leaves=5
num_cat=0
split_feature=22 10 13 7
split_gain=29.5725 16.5252 4.26505 2.67102
threshold=1.5000000000000002 2.5000000000000004 1.5000000000000002 1.5000000000000002
decision_type=2 2 2 2
left_child=-1 2 -2 -3
right_child=1 3 -4 -5
leaf_value=-0.066291437777717593 -0.02408626285734097 0.010820007140002287 0 0.033352629439249437
leaf_weight=14.251297399401663 28.226832091808319 34.480947375297546 47.912558063864708 38.960469275712967
leaf_count=59 114 138 193 156
internal_value=0 0.00677339 -0.00903233 0.0237326
internal_weight=0 149.581 76.1394 73.4414
internal_count=660 601 307 294
is_linear=0
shrinkage=0.05


Tree=6
num_leaves=6
num_cat=0
split_feature=22 18 10 21 3
split_gain=27.175 22.3175 10.9954 1.37182 0.585117
threshold=1.5000000000000002 1.5000000000000002 2.5000000000000004 1.5000000000000002 1.0000000180025095e-35
decision_type=2 2 2 2 2
left_child=3 2 -2 -1 -3
right_child=1 4 -4 -5 -6
leaf_value=-0.06914041626395119 -0.014973447097388513 0.055010117739324876 0.014087875529742897 0 0
leaf_weight=12.620359688997265 69.087301656603813 19.929910838603977 59.217616438865662 1.4485155344009406 1.2476007938384999
leaf_count=53 279 80 237 6 5
internal_value=0 0.00644792 -0.00116863 -0.0639788 0.0528197
internal_weight=0 149.482 128.305 14.0689 21.1775
internal_count=660 601 516 59 85
is_linear=0
shrinkage=0.05


Tree=7
num_leaves=8
num_cat=0
split_feature=6 18 6 8 7 13 21
split_gain=27.4419 14.6662 8.08437 6.83976 1.53228 0.418456 0.133773
threshold=1.5000000000000002 1.5000000000000002 2.5000000000000004 1.0000000180025095e-35 1.5000000000000002 1.5000000000000002 1.5000000000000002
decision_type=2 2 2 2 2 2 2
left_child=3 2 -2 6 -3 -5 -1
right_child=1 4 -4 5 -6 -7 -8
leaf_value=-0.056094987269065213 -0.0097148958120061874 0.019445193423375751 0.016925179287385014 0 0.061729297676081256 0.021783853135258241 -0.016137152483562098
leaf_weight=21.540494903922088 61.011616200208664 9.4612807929515839 50.645695820450783 1.2440564632415765 11.891710788011551 2.2489700168371201 5.1299657374620429
leaf_count=90 246 38 203 5 48 9 21
internal_value=0 0.00985666 0.0019677 -0.0422334 0.0469386 0.0105027 -0.0510772
internal_weight=0 133.01 111.657 30.1635 21.353 3.49303 26.6705
internal_count=660 535 449 125 86 14 111
is_linear=0
shrinkage=0.05


Tree=8
num_leaves=7
num_cat=0
split_feature=6 6 19 8 12 19
split_gain=25.1233 10.3072 10.9694 6.37176 1.11777 0.191604
threshold=1.5000000000000002 2.5000000000000004 1.5000000000000002 1.0000000180025095e-35 1.5000000000000002 1.5000000000000002
decision_type=2 2 2 2 2 2
left_child=3 2 -2 5 -3 -1
right_child=1 4 -4 -5 -6 -7
leaf_value=-0.05077815441103456 -0.014320863588295424 0.033853618308313585 0.034972531327915647 0.009960293629386623 0.015157475291669567 0
leaf_weight=24.937415629625328 54.217410460114479 25.139347657561302 12.933511510491369 3.491840422153472 40.59227828681469 1.4745921045541752
leaf_count=105 219 101 52 14 163 6
internal_value=0 0.00942524 -0.00371926 -0.0405897 0.0234573 -0.0492163
internal_weight=0 132.883 67.1509 29.9038 65.7316 26.412
internal_count=660 535 271 125 264 111
is_linear=0
shrinkage=0.05


Tree=9
num_leaves=7
num_cat=0
split_feature=6 6 8 8 12 9
split_gain=22.9357 9.34555 7.67982 5.95679 0.97903 0.707827
threshold=1.5000000000000002 2.5000000000000004 1.0000000180025095e-35 1.0000000180025095e-35 1.5000000000000002 1.0000000180025095e-35
decision_type=2 2 2 2 2 2
left_child=3 2 -2 -1 -3 -5
right_child=1 4 -4 5 -6 -7
leaf_value=-0.047403581973572848 -0.015604880452172565 0.032272860037249759 0.019655469830970176 0 0.014423689526583468 0.031153952516980388
leaf_weight=26.131989866495136 45.658462673425674 25.102060467004776 21.427400469779968 2.2437995374202719 40.575775563716888 1.2474260777235033
leaf_count=111 185 101 86 9 163 5
internal_value=0 0.00900682 -0.00348499 -0.0389623 0.0223772 0.00957449
internal_weight=0 132.764 67.0859 29.6232 65.6778 3.49123
internal_count=660 535 271 125 264 14
is_linear=0
shrinkage=0.05


Tree=10
num_leaves=5
num_cat=0
split_feature=22 18 6 7
split_gain=21.6889 17.5038 8.5253 1.3421
threshold=1.5000000000000002 1.5000000000000002 2.5000000000000004 1.5000000000000002
decision_type=2 2 2 2
left_child=-1 2 -2 -3
right_child=1 3 -4 -5
leaf_value=-0.058493224278851036 -0.011697654145431247 0.019606110699662171 0.014451713275934015 0.061354079969788956
leaf_weight=13.40623766183853 77.253969088196754 9.1757562011480331 50.345843613147736 11.755783170461655
leaf_count=59 314 37 202 48
internal_value=0 0.0057431 -0.000959196 0.0470613
internal_weight=0 148.531 127.6 20.9315
internal_count=660 601 516 85
is_linear=0
shrinkage=0.05


Tree=11
num_leaves=8
num_cat=0
split_feature=6 18 8 6 3 9 19
split_gain=19.6066 11.7425 5.42645 5.14958 1.47891 0.658553 0.214573
threshold=1.5000000000000002 1.5000000000000002 1.0000000180025095e-35 2.5000000000000004 1.0000000180025095e-35 1.0000000180025095e-35 1.5000000000000002
decision_type=2 2 2 2 2 2 2
left_child=2 3 6 -2 -3 -4 -1
right_child=1 4 5 -5 -6 -7 -8
leaf_value=-0.046100195574460434 -0.007993974329857113 0.04527184315024016 0 0.013288775826641983 0 0.030251511267423137 0
leaf_weight=24.142684549093254 60.760281339287758 19.56687314808369 2.2422521114349356 50.562311813235283 1.4852900654077519 1.244503125548363 1.4600932151079167
leaf_count=105 246 80 9 203 6 5 6
internal_value=0 0.0083402 -0.0363414 0.00125967 0.0417593 0.00953224 -0.0445917
internal_weight=0 132.375 29.0895 111.323 21.0522 3.48676 25.6028
internal_count=660 535 125 449 86 14 111
is_linear=0
shrinkage=0.05


Tree=12
num_leaves=5
num_cat=0
split_feature=22 18 10 7
split_gain=19.1658 14.7263 7.33151 1.3576
threshold=1.5000000000000002 1.5000000000000002 2.5000000000000004 1.5000000000000002
decision_type=2 2 2 2
left_child=-1 2 -2 -3
right_child=1 3 -4 -5
leaf_value=-0.055798521696291375 -0.012160922607481776 0.016892752958199433 0.01165568331917083 0.057531537860755134
leaf_weight=13.007780119776724 68.262772217392921 9.1199025064706802 59.011253774166107 11.555221617221832
leaf_count=59 279 37 237 48
internal_value=0 0.00537396 -0.000723662 0.0435187
internal_weight=0 147.949 127.274 20.6751
internal_count=660 601 516 85
is_linear=0
shrinkage=0.05


Tree=13
num_leaves=6
num_cat=0
split_feature=22 6 19 4 21
split_gain=17.7435 9.80332 11.6407 2.70339 1.50782
threshold=1.5000000000000002 2.5000000000000004 1.5000000000000002 1.0000000180025095e-35 1.5000000000000002
decision_type=2 2 2 2 2
left_child=4 2 -2 -3 -1
right_child=1 3 -4 -5 -6
leaf_value=-0.059697667272104953 -0.014870368748013667 -0.0099823961706772581 0.032809179770877911 0.022778909290630815 0
leaf_weight=11.394993722438809 68.612250059843063 4.2137978971004477 14.314311429858206 60.528461515903473 1.3664107024669654
leaf_count=53 281 17 58 245 6
internal_value=0 0.00515774 -0.00575157 0.0197667 -0.0541851
internal_weight=0 147.669 82.9266 64.7423 12.7614
internal_count=660 601 339 262 59
is_linear=0
shrinkage=0.05


Tree=14
num_leaves=7
num_cat=0
split_feature=18 0 21 4 7 1
split_gain=14.8614 8.1839 5.12279 4.96427 1.47923 0.583099
threshold=1.5000000000000002 1.0000000180025095e-35 1.5000000000000002 1.0000000180025095e-35 1.5000000000000002 1.5000000000000002
decision_type=2 2 2 2 2 2
left_child=1 3 -3 -1 5 -2
right_child=4 2 -4 -5 -6 -7
leaf_value=-0.039883065681501489 0.018789527382520429 -0.037876059184169371 0.003133549344654592 0.003738974224167638 0.052086439435693965 0
leaf_weight=5.9295167922973624 8.0825019776821119 25.510725438594818 7.4830164015293112 100.07286003232002 11.616716265678406 1.2379862070083625
leaf_count=24 33 112 31 406 49 5
internal_value=0 -0.00590017 -0.0272856 0.000481657 0.0383597 0.0130173
internal_weight=0 138.996 32.9937 106.002 20.9372 9.32049
internal_count=660 573 143 430 87 38
is_linear=0
shrinkage=0.05


Tree=15
num_leaves=8
num_cat=0
split_feature=10 19 21 17 9 8 7
split_gain=14.0326 11.3298 3.02398 2.91457 5.18948 2.00706 1.23136
threshold=2.5000000000000004 1.5000000000000002 1.5000000000000002 1.0000000180025095e-35 1.0000000180025095e-35 1.0000000180025095e-35 1.5000000000000002
decision_type=2 2 2 2 2 2 2
left_child=1 2 -1 5 -5 -2 -3
right_child=3 6 -4 4 -6 -7 -8
leaf_value=-0.026260983368670523 -0.017305787632049149 0.0015891794143439348 0 0.0055621886483042046 0.043799324307295495 0.010618180629095341 0.043308365029774233
leaf_weight=59.103223115205765 6.9198429882526424 6.1640585809946042 15.037885949015616 22.812058106064796 19.101431399583817 24.297435626387596 6.1078136265277863
leaf_count=251 28 25 62 92 78 99 25
internal_value=0 -0.0134598 -0.0212371 0.0161125 0.0247679 0.00253136 0.0278192
internal_weight=0 86.413 74.1411 73.1308 41.9135 31.2173 12.2719
internal_count=660 363 313 297 170 127 50
is_linear=0
shrinkage=0.05


Tree=16
num_leaves=6
num_cat=0
split_feature=22 18 6 21 1
split_gain=15.4109 11.672 5.57769 1.34634 0.962502
threshold=1.5000000000000002 1.5000000000000002 2.5000000000000004 1.5000000000000002 1.5000000000000002
decision_type=2 2 2 2 2
left_child=3 2 -2 -1 -3
right_child=1 4 -4 -5 -6
leaf_value=-0.0569175786224424 -0.009380668780962902 0.043373493252921363 0.011833661189726515 0 0
leaf_weight=10.882735460996624 76.523459121584892 17.574450880289081 50.150686949491501 1.3676674365997321 2.6375014185905448
leaf_count=53 314 74 202 6 11
internal_value=0 0.00479319 -0.000563325 -0.0514899 0.0391651
internal_weight=0 146.886 126.674 12.2504 20.212
internal_count=660 601 516 59 85
is_linear=0
shrinkage=0.05


Tree=17
num_leaves=6
num_cat=0
split_feature=22 18 8 21 1
split_gain=14.3154 10.7191 5.07507 1.2734 0.859857
threshold=1.5000000000000002 1.5000000000000002 1.0000000180025095e-35 1.5000000000000002 1.5000000000000002
decision_type=2 2 2 2 2
left_child=3 2 -2 -1 -3
right_child=1 4 -4 -5 -6
leaf_value=-0.055542881184673633 -0.0081957607318274197 0.041708471644231228 0.012552896092881599 0 0
leaf_weight=10.625781789422032 82.351695373654366 17.40645790100098 44.202183648943901 1.3676674365997321 2.6375014185905448
leaf_count=53 338 74 178 6 11
internal_value=0 0.00458762 -0.000515172 -0.0501526 0.0376752
internal_weight=0 146.598 126.554 11.9934 20.044
internal_count=660 601 516 59 85
is_linear=0
shrinkage=0.05


Tree=18
num_leaves=5
num_cat=0
split_feature=22 18 13 1
split_gain=13.3074 9.84964 4.15873 0.767153
threshold=1.5000000000000002 1.5000000000000002 1.5000000000000002 1.5000000000000002
decision_type=2 2 2 2
left_child=-1 2 -2 -3
right_child=1 3 -4 -5
leaf_value=-0.048878334242734786 -0.014047380870172158 0.040126068388079895 0.0052423356828119744 0
leaf_weight=11.735742524266241 39.594717472791672 17.232162564992908 86.849620386958122 2.6375014185905448
leaf_count=59 163 74 353 11
internal_value=0 0.00439199 -0.000468536 0.0362591
internal_weight=0 146.314 126.444 19.8697
internal_count=660 601 516 85
is_linear=0
shrinkage=0.05


Tree=19
num_leaves=5
num_cat=0
split_feature=22 18 10 7
split_gain=12.3475 9.05858 4.90095 1.57268
threshold=1.5000000000000002 1.5000000000000002 2.5000000000000004 1.5000000000000002
decision_type=2 2 2 2
left_child=-1 2 -2 -3
right_child=1 3 -4 -5
leaf_value=-0.047591174550916437 -0.0099108443391889879 0.0095695938917177634 0.0096229706173334827 0.048874412884398026
leaf_weight=11.48397935926914 67.613095313310623 8.8664938658475876 58.786750018596649 10.824198812246323
leaf_count=59 279 37 237 48
internal_value=0 0.00419899 -0.000429259 0.0349103
internal_weight=0 146.091 126.4 19.6907
internal_count=660 601 516 85
is_linear=0
shrinkage=0.05


Tree=20
num_leaves=7
num_cat=0
split_feature=18 8 19 4 7 15
split_gain=9.28282 6.68886 8.32228 1.60432 1.56613 0.250251
threshold=1.5000000000000002 1.0000000180025095e-35 1.5000000000000002 1.0000000180025095e-35 1.5000000000000002 1.5000000000000002
decision_type=2 2 2 2 2 2
left_child=1 2 -1 -3 5 -2
right_child=4 3 -4 -5 -6 -7
leaf_value=-0.0188193434880514 0 -0.01488351187896988 0.021999479121949998 0.01392817880106517 0.044683461725727479 0.013746792826135893
leaf_weight=79.595695912837982 4.0666175782680511 2.9904498904943457 12.857891485095022 41.587337657809258 10.896593362092972 5.0157447159290314
leaf_count=341 17 12 52 168 49 21
internal_value=0 -0.00455056 -0.0124328 0.0106142 0.0311442 0.00712051
internal_weight=0 137.031 92.4536 44.5778 19.979 9.08236
internal_count=660 573 393 180 87 38
is_linear=0
shrinkage=0.05


Tree=21
num_leaves=5
num_cat=0
split_feature=22 18 8 7
split_gain=11.2524 7.7457 3.67669 1.31071
threshold=1.5000000000000002 1.5000000000000002 1.0000000180025095e-35 1.5000000000000002
decision_type=2 2 2 2
left_child=-1 2 -2 -3
right_child=1 3 -4 -5
leaf_value=-0.046031297429326642 -0.0068120419391519598 0.0088338898367756446 0.010890207162280202 0.045933535636214023
leaf_weight=11.150672569870947 81.950368911027908 8.8367360979318619 44.086209565401077 10.495376273989677
leaf_count=59 338 37 178 48
internal_value=0 0.00403677 -0.00018942 0.0327029
internal_weight=0 145.369 126.037 19.3321
internal_count=660 601 516 85
is_linear=0
shrinkage=0.05


Tree=22
num_leaves=7
num_cat=0
split_feature=6 15 6 8 18 9
split_gain=11.2218 5.12887 3.94861 3.6282 2.07986 0.491748
threshold=1.5000000000000002 1.5000000000000002 2.5000000000000004 1.0000000180025095e-35 1.5000000000000002 1.0000000180025095e-35
decision_type=2 2 2 2 2 2
left_child=3 2 -2 -1 -3 -5
right_child=1 4 -4 5 -6 -7
leaf_value=-0.036192067352605051 -0.01541957032644015 0.0099865483112033387 0.0093452261167032407 0 0.03522003339274507 0.025627290676343253
leaf_weight=23.172740697860721 33.570846602320671 56.287572279572487 27.015882804989815 2.2149837166070929 12.505785927176474 1.2102785259485247
leaf_count=111 139 229 111 9 56 5
internal_value=0 0.00633936 -0.00359254 -0.0287521 0.015729 0.0070868
internal_weight=0 129.38 60.5867 26.598 68.7934 3.42526
internal_count=660 535 250 125 285 14
is_linear=0
shrinkage=0.05


Tree=23
num_leaves=7
num_cat=0
split_feature=6 4 7 10 13 19
split_gain=10.2366 5.0268 4.11049 1.88122 0.104824 0.0336818
threshold=1.5000000000000002 1.0000000180025095e-35 1.5000000000000002 2.5000000000000004 1.5000000000000002 1.5000000000000002
decision_type=2 2 2 2 2 2
left_child=3 -2 -3 5 -5 -1
right_child=1 2 -4 4 -6 -7
leaf_value=-0.034929000081320959 -0.028822159597932426 0 0.018823093938621523 -0.0073732908515349513 0.0052651471677383939 0
leaf_weight=19.97241988778115 7.9950232207775107 65.264375358819962 55.90680418908596 1.6718484312295903 3.2134721130132675 1.430745631456374
leaf_count=99 33 268 234 7 13 6
internal_value=0 0.00606729 0.00899567 -0.0276083 0 -0.0337396
internal_weight=0 129.166 121.171 26.2885 4.88532 21.4032
internal_count=660 535 502 125 20 105
is_linear=0
shrinkage=0.05


Tree=24
num_leaves=7
num_cat=0
split_feature=6 4 18 8 17 19
split_gain=9.38108 4.59478 3.74244 3.2407 1.15965 0.0357271
threshold=1.5000000000000002 1.0000000180025095e-35 1.5000000000000002 1.0000000180025095e-35 1.0000000180025095e-35 1.5000000000000002
decision_type=2 2 2 2 2 2
left_child=3 4 -3 5 -2 -1
right_child=1 2 -4 -5 -6 -7
leaf_value=-0.034999332407579513 -0.050004874341416976 0.0041895550409598572 0.029435516919283096 0.0067110636487377603 -0.0005343337406238228 0
leaf_weight=21.152448087930686 2.8891935646533957 103.0557356774807 18.041020005941391 3.4199893176555625 5.1000575870275497 1.430745631456374
leaf_count=105 12 421 81 14 21 6
internal_value=0 0.00575536 0.00857049 -0.026626 -0.0275594 -0.0338652
internal_weight=0 129.086 121.097 26.0032 7.98925 22.5832
internal_count=660 535 502 125 33 111
is_linear=0
shrinkage=0.05


Tree=25
num_leaves=6
num_cat=0
split_feature=22 18 13 21 7
split_gain=9.3015 6.1382 3.25832 1.41696 1.27197
threshold=1.5000000000000002 1.5000000000000002 1.5000000000000002 1.5000000000000002 1.5000000000000002
decision_type=2 2 2 2 2
left_child=3 2 -2 -1 -3
right_child=1 4 -4 -5 -6
leaf_value=-0.049434504787629049 -0.012276899698000745 0.0065406477001241957 0.0049100239026135268 0 0.042504820865140236
leaf_weight=9.2032869458198512 39.092511773109436 8.7334697544574738 86.290310263633728 1.2606961578130729 10.053108736872673
leaf_count=53 163 37 353 6 48
internal_value=0 0.00358105 -0.000107722 -0.0431975 0.0294884
internal_weight=0 144.169 125.383 10.464 18.7866
internal_count=660 601 516 59 85
is_linear=0
shrinkage=0.05


Tree=26
num_leaves=8
num_cat=0
split_feature=10 19 4 21 15 1 15
split_gain=6.71136 7.77268 3.51926 2.24196 0.798403 0.693265 0.410716
threshold=2.5000000000000004 1.5000000000000002 1.0000000180025095e-35 1.5000000000000002 2.5000000000000004 1.5000000000000002 1.5000000000000002
decision_type=2 2 2 2 2 2 2
left_child=1 3 6 -1 -4 -3 -2
right_child=2 5 4 -5 -6 -7 -8
leaf_value=-0.02073035040318176 -0.035450864422042365 0.029065559786112239 0.016178853422785348 0 0 0 0
leaf_weight=56.089195236563683 2.2275223135948172 10.541874796152111 64.054231718182564 14.683954969048498 2.2186618447303763 1.4179377108812339 2.9248265326023102
leaf_count=251 9 44 267 62 9 6 12
internal_value=0 -0.00947351 0.0113095 -0.0162399 0.0149483 0.0248725 -0.0221902
internal_weight=0 82.733 71.4252 70.7732 66.2729 11.9598 5.15235
internal_count=660 363 297 313 276 50 21
is_linear=0
shrinkage=0.05


Tree=27
num_leaves=5
num_cat=0
split_feature=22 7 13 19
split_gain=8.46663 5.48555 5.22471 1.5798
threshold=1.5000000000000002 1.5000000000000002 1.5000000000000002 1.5000000000000002
decision_type=2 2 2 2
left_child=-1 2 -2 -3
right_child=1 3 -4 -5
leaf_value=-0.041867637078870909 -0.022787561175932416 0.0079661818173974303 0.0033849160043012208 0.02889256232762076
leaf_weight=10.139057323336599 26.549488753080368 46.686380580067635 54.09711691737175 16.253553181886673
leaf_count=59 112 196 223 70
internal_value=0 0.00336886 -0.00479244 0.0145195
internal_weight=0 143.587 80.6466 62.9399
internal_count=660 601 335 266
is_linear=0
shrinkage=0.05


Tree=28
num_leaves=7
num_cat=0
split_feature=18 13 12 7 12 15
split_gain=5.75686 3.77563 4.36824 3.73083 2.00446 0.760246
threshold=1.5000000000000002 1.5000000000000002 1.5000000000000002 1.5000000000000002 1.5000000000000002 1.5000000000000002
decision_type=2 2 2 2 2 2
left_child=1 3 -3 -1 -2 -6
right_child=4 2 -4 -5 5 -7
leaf_value=-0.025722279852017096 0.04612439544238342 0.019728724754013816 -0.0043266073358958898 0.0018910091063693503 -0.0027062260233880375 0.016432094660642192
leaf_weight=29.389289289712906 7.0819633901119241 24.679975733160973 65.328478962182999 15.009147763252257 4.1002321094274521 7.7348610162734985
leaf_count=132 33 103 274 64 18 36
internal_value=0 -0.00355781 0.00186418 -0.0154501 0.0252299 0.00621185
internal_weight=0 134.407 90.0085 44.3984 18.9171 11.8351
internal_count=660 573 377 196 87 54
is_linear=0
shrinkage=0.05


Tree=29
num_leaves=7
num_cat=0
split_feature=6 15 6 8 2 13
split_gain=7.31629 3.96422 3.12591 2.77629 1.25333 0.29457
threshold=1.5000000000000002 1.5000000000000002 2.5000000000000004 1.0000000180025095e-35 1.0000000180025095e-35 1.5000000000000002
decision_type=2 2 2 2 2 2
left_child=3 2 -2 -1 -3 -5
right_child=1 4 -4 5 -6 -7
leaf_value=-0.031028303160920281 -0.014265556540495942 0.031058196817796802 0.0077465205924380975 0 0.0089493310827508301 0.016734936946864006
leaf_weight=21.631728410720829 33.246285811066628 10.187634661793707 26.747665017843246 1.1690437495708459 57.785089865326881 2.2258251458406448
leaf_count=111 139 42 111 5 243 9
internal_value=0 0.00503976 -0.00366585 -0.024019 0.0133901 0.00616419
internal_weight=0 127.967 59.994 25.0266 67.9727 3.39487
internal_count=660 535 250 125 285 14
is_linear=0
shrinkage=0.05


Tree=30
num_leaves=8
num_cat=0
split_feature=7 9 17 13 18 10 18
split_gain=5.30117 4.87322 6.12482 4.83323 3.08116 1.66921 0.0408874
threshold=1.5000000000000002 1.0000000180025095e-35 1.0000000180025095e-35 1.5000000000000002 1.5000000000000002 2.5000000000000004 1.5000000000000002
decision_type=2 2 2 2 2 2 2
left_child=3 4 -3 6 -2 -5 -1
right_child=1 2 -4 5 -6 -7 -8
leaf_value=-0.024173318391957445 -0.0025740071511995964 0 0.057234416617083908 -0.0066030469082546854 0.034621434521937659 0.010203557838059259 0
leaf_weight=29.062189295887951 41.698651358485222 8.0274147987365723 9.7761202901601791 31.761972308158875 5.2455207854509345 25.363034307956696 1.6378597766160954
leaf_count=132 176 34 43 138 26 104 7
internal_value=0 0.0109416 0.0326037 -0.00778378 0.00117475 4.58994e-05 -0.023472
internal_weight=0 64.7477 17.8035 87.8251 46.9442 57.125 30.7
internal_count=660 279 77 381 202 242 139
is_linear=0
shrinkage=0.05


Tree=31
num_leaves=6
num_cat=0
split_feature=22 18 6 21 1
split_gain=7.29436 4.54455 2.76737 1.44419 0.882255
threshold=1.5000000000000002 1.5000000000000002 2.5000000000000004 1.5000000000000002 1.5000000000000002
decision_type=2 2 2 2 2
left_child=3 2 -2 -1 -3
right_child=1 4 -4 -5 -6
leaf_value=-0.046500665542953859 -0.0063701987685000116 0.030046729635107652 0.0087128414455495597 0 0
leaf_weight=8.4442076534032786 74.783858001232147 15.606075540184976 49.625294610857964 1.2022391855716712 2.46812979876995
leaf_count=53 314 74 202 6 11
internal_value=0 0.00315148 0 -0.0397368 0.0258912
internal_weight=0 142.483 124.409 9.64645 18.0742
internal_count=660 601 516 59 85
is_linear=0
shrinkage=0.05


Tree=32
num_leaves=5
num_cat=0
split_feature=22 7 9 13
split_gain=6.7746 4.22494 3.82966 3.6757
threshold=1.5000000000000002 1.5000000000000002 1.0000000180025095e-35 1.5000000000000002
decision_type=2 2 2 2
left_child=-1 3 -3 -2
right_child=1 2 -4 -5
leaf_value=-0.038740316711039079 -0.019388828276250717 0.0036325456364238958 0.032551080604052561 0.0025950150836946718
leaf_weight=9.4202893525361997 26.110825628042221 44.868125826120377 17.363052934408188 53.859156489372253
leaf_count=59 112 190 76 223
internal_value=0 0.00301023 0.012879 -0.00411618
internal_weight=0 142.201 62.2312 79.97
internal_count=660 601 266 335
is_linear=0
shrinkage=0.05


Tree=33
num_leaves=8
num_cat=0
split_feature=6 4 7 8 17 21 9
split_gain=5.79238 3.96826 2.41659 2.3877 1.11624 0.652153 0.393047
threshold=1.5000000000000002 1.0000000180025095e-35 1.5000000000000002 1.0000000180025095e-35 1.0000000180025095e-35 1.5000000000000002 1.0000000180025095e-35
decision_type=2 2 2 2 2 2 2
left_child=3 4 -3 5 -2 -1 -5
right_child=1 2 -4 6 -6 -7 -8
leaf_value=-0.033476772422596675 -0.048736101363135366 0 0.014826619888743474 0 0 0 0.022719500322395714
leaf_weight=16.274950504302986 2.8356589972972861 64.518369391560555 54.608208417892456 2.1916498094797126 5.0448746830224991 4.5529802590608588 1.172182694077492
leaf_count=90 12 268 234 9 21 21 5
internal_value=0 0.00449121 0.0071742 -0.0217332 -0.0266769 -0.0284999 0.00563589
internal_weight=0 127.007 119.127 24.1918 7.88053 20.8279 3.36383
internal_count=660 535 502 125 33 111 14
is_linear=0
shrinkage=0.05


Tree=34
num_leaves=7
num_cat=0
split_feature=18 9 17 21 12 15
split_gain=4.17995 2.99513 6.49894 2.73001 2.06217 0.572549
threshold=1.5000000000000002 1.0000000180025095e-35 1.0000000180025095e-35 1.5000000000000002 1.5000000000000002 1.5000000000000002
decision_type=2 2 2 2 2 2
left_child=1 3 -3 -1 -2 -6
right_child=4 2 -4 -5 5 -7
leaf_value=-0.012124255554482334 0.042904863816323802 -0.011909867821187775 0.035683402767926885 0.0043566994349331064 -0.004365226094799883 0.013131658369953798
leaf_weight=76.707033559679985 6.7539772391319284 11.764739334583282 13.080240100622177 31.055351540446281 4.0377407521009445 7.4487706571817398
leaf_count=342 33 48 54 129 18 36
internal_value=0 -0.00300941 0.0116233 -0.00691861 0.0219141 0.00311981
internal_weight=0 132.607 24.845 107.762 18.2405 11.4865
internal_count=660 573 102 471 87 54
is_linear=0
shrinkage=0.05


Tree=35
num_leaves=6
num_cat=0
split_feature=22 18 4 21 12
split_gain=5.97323 3.7229 2.6219 1.36603 1.31643
threshold=1.5000000000000002 1.5000000000000002 1.0000000180025095e-35 1.5000000000000002 1.5000000000000002
decision_type=2 2 2 2 2
left_child=3 2 -2 -1 -3
right_child=1 4 -4 -5 -6
leaf_value=-0.044134507681602639 -0.027182864365225063 0.041692937161023035 0.0015921942232151672 0 0.0060123230402527065
leaf_weight=7.8514343351125699 7.4681702107191077 6.6349052041769037 116.37554924190044 1.1840625852346418 10.989776372909546
leaf_count=53 31 33 485 6 52
internal_value=0 0.00278731 0 -0.0371178 0.0236465
internal_weight=0 141.468 123.844 9.0355 17.6247
internal_count=660 601 516 59 85
is_linear=0
shrinkage=0.05


Tree=36
num_leaves=7
num_cat=0
split_feature=6 7 6 13 2 10
split_gain=5.03248 2.63287 2.12464 1.19246 1.13155 0.474283
threshold=1.5000000000000002 1.5000000000000002 2.5000000000000004 1.5000000000000002 1.0000000180025095e-35 2.5000000000000004
decision_type=2 2 2 2 2 2
left_child=3 2 -2 -1 -3 -5
right_child=1 4 -4 5 -6 -7
leaf_value=-0.032912670674938242 -0.01053579959161275 0.032614293779336286 0.0064587874614060103 -0.01157277537235488 0.0078432521585799272 0.0030205695930968172
leaf_weight=11.095403730869293 36.351765811443329 6.7104414403438559 32.491907119750977 9.3976607322692853 50.902562484145164 3.184838831424714
leaf_count=62 153 28 134 50 220 13
internal_value=0 0.0041688 -0.0018214 -0.0204953 0.0120887 -0.00424732
internal_weight=0 126.457 68.8437 23.6779 57.613 12.5825
internal_count=660 535 287 125 248 63
is_linear=0
shrinkage=0.05


Tree=37
num_leaves=6
num_cat=0
split_feature=6 7 9 6 10
split_gain=4.6235 2.40356 2.45843 1.92885 0.922846
threshold=1.5000000000000002 1.5000000000000002 1.0000000180025095e-35 2.5000000000000004 2.5000000000000004
decision_type=2 2 2 2 2
left_child=4 3 -3 -2 -1
right_child=1 2 -4 -5 -6
leaf_value=-0.024516232496601627 -0.010037302672363186 0.0034124438059208806 0.027912051254163624 0.006149351895821116 0
leaf_weight=18.68276916444302 36.300303295254707 41.22883802652359 16.324698612093925 32.471408873796463 4.7852259427309027
leaf_count=105 153 175 73 134 20
internal_value=0 0.00399846 0.0115735 -0.00169936 -0.0197283
internal_weight=0 126.325 57.5535 68.7717 23.468
internal_count=660 535 248 287 125
is_linear=0
shrinkage=0.05


Tree=38
num_leaves=6
num_cat=0
split_feature=22 7 13 19 21
split_gain=5.16935 2.91952 3.04606 1.34657 1.34247
threshold=1.5000000000000002 1.5000000000000002 1.5000000000000002 1.5000000000000002 1.5000000000000002
decision_type=2 2 2 2 2
left_child=4 2 -2 -3 -1
right_child=1 3 -4 -5 -6
leaf_value=-0.042584602032010116 -0.017366089150908676 0.0048876540156018982 0.0027711019389367489 0.024056328188476715 0
leaf_weight=7.4534863829612714 25.708894357085228 45.829878598451614 53.577210977673531 15.653076007962225 1.1591177880764005
leaf_count=53 112 196 223 70 6
internal_value=0 0.00258808 -0.00327068 0.010875 -0.0352935
internal_weight=0 140.769 79.2861 61.483 8.6126
internal_count=660 601 335 266 59
is_linear=0
shrinkage=0.05


Tree=39
num_leaves=8
num_cat=0
split_feature=6 18 8 2 7 9 19
split_gain=4.02706 2.07141 1.96143 1.37016 1.02094 0.33851 0.0217531
threshold=1.5000000000000002 1.5000000000000002 1.0000000180025095e-35 1.0000000180025095e-35 1.5000000000000002 1.0000000180025095e-35 1.5000000000000002
decision_type=2 2 2 2 2 2 2
left_child=2 3 6 -2 -3 -4 -1
right_child=1 4 5 -5 -6 -7 -8
leaf_value=-0.026041405359008042 0.01365186050723087 0.00025456887865179037 0 -0.0013497704091767428 0.030938581760269548 0.021295219056836096 0
leaf_weight=18.345167525112636 16.689728826284409 8.6911007016897202 2.1772601455450049 91.670936107635498 8.8894584625959396 1.1535893529653551 1.384537249803542
leaf_count=105 70 38 9 379 48 5 6
internal_value=0 0.00374068 -0.0185636 0.000607286 0.0192907 0.00548616 -0.0251045
internal_weight=0 125.941 23.0606 108.361 17.5806 3.33085 19.7297
internal_count=660 535 125 449 86 14 111
is_linear=0
shrinkage=0.05


Tree=40
num_leaves=6
num_cat=0
split_feature=22 18 9 21 3
split_gain=4.66236 3.04902 1.38077 1.29969 0.554629
threshold=1.5000000000000002 1.5000000000000002 1.0000000180025095e-35 1.5000000000000002 1.0000000180025095e-35
decision_type=2 2 2 2 2
left_child=3 2 -2 -1 -3
right_child=1 4 -4 -5 -6
leaf_value=-0.041464216199012596 -0.0030097637213575778 0.024030758772089891 0.0099744463702522053 0 0
leaf_weight=7.1683485284447652 98.502228602766991 16.092534139752392 24.636596471071243 1.1502148061990736 1.0814905017614354
leaf_count=53 414 80 102 6 5
internal_value=0 0.00246899 0 -0.034035 0.021606
internal_weight=0 140.313 123.139 8.31856 17.174
internal_count=660 601 516 59 85
is_linear=0
shrinkage=0.05


Tree=41
num_leaves=6
num_cat=0
split_feature=4 10 18 15 2
split_gain=2.99366 3.3336 1.44181 1.04888 0.827727
threshold=1.0000000180025095e-35 2.5000000000000004 1.5000000000000002 1.5000000000000002 1.0000000180025095e-35
decision_type=2 2 2 2 2
left_child=3 2 -2 -1 -3
right_child=1 4 -4 -5 -6
leaf_value=-0.042627870199039519 -0.0071874181363180316 0.025477161382856484 0.015341142163365974 0 0.0066329646257796615
leaf_weight=4.2303556650876981 69.224377170205116 9.6902046501636487 5.778741553425788 4.6659265160560608 54.640403553843498
leaf_count=18 318 41 27 21 235
internal_value=0 0.00207134 -0.00461479 -0.0263708 0.0105834
internal_weight=0 139.334 75.0031 8.89628 64.3306
internal_count=660 621 345 39 276
is_linear=0
shrinkage=0.05


Tree=42
num_leaves=8
num_cat=0
split_feature=8 19 15 7 19 16 17
split_gain=2.71995 5.81248 2.39247 2.07083 1.21435 3.01245 0.880285
threshold=1.0000000180025095e-35 1.5000000000000002 1.5000000000000002 1.5000000000000002 1.5000000000000002 1.5000000000000002 1.0000000180025095e-35
decision_type=2 2 2 2 2 2 2
left_child=1 2 -1 -3 5 -2 -6
right_child=4 3 -4 -5 6 -7 -8
leaf_value=-0.019492801010295921 0 0 -0.0005831179284973301 0.036521708029430437 -0.014491978642141148 0.026581162106077045 0.007942271709774568
leaf_weight=40.01618480682373 18.964631080627441 8.3186522573232651 38.109444178640842 8.2716268002986908 7.1607971638441068 20.35475666821003 6.7636022418737411
leaf_count=187 79 35 172 37 32 88 30
internal_value=0 -0.00487588 -0.0110246 0.0202172 0.00913273 0.0136907 -0.000442595
internal_weight=0 94.7159 78.1256 16.5903 53.2438 39.3194 13.9244
internal_count=660 431 359 72 229 167 62
is_linear=0
shrinkage=0.05


Tree=43
num_leaves=6
num_cat=0
split_feature=22 4 6 21 15
split_gain=4.19564 2.98908 2.36101 1.2637 1.08354
threshold=1.5000000000000002 1.0000000180025095e-35 1.5000000000000002 1.5000000000000002 1.5000000000000002
decision_type=2 2 2 2 2
left_child=3 4 -3 -1 -2
right_child=1 2 -4 -5 -6
leaf_value=-0.040382398480583837 -0.040276308207018295 -0.011819737784496629 0.0073577846313022041 0 0
leaf_weight=6.9060400500893575 4.0425110310316068 15.990259841084479 115.11738996207714 1.1408456414937971 4.4269794076681137
leaf_count=53 17 75 490 6 19
internal_value=0 0.00231854 0.00456859 -0.0328007 -0.0240365
internal_weight=0 139.577 131.108 8.04689 8.46949
internal_count=660 601 565 59 36
is_linear=0
shrinkage=0.05


Tree=44
num_leaves=7
num_cat=0
split_feature=6 8 16 21 15 20
split_gain=3.11722 4.8215 1.3825 1.26284 0.294904 0.329708
threshold=2.5000000000000004 1.0000000180025095e-35 1.5000000000000002 1.5000000000000002 2.5000000000000004 1.5000000000000002
decision_type=2 2 2 2 2 2
left_child=1 3 -3 -1 5 -2
right_child=4 2 -4 -5 -6 -7
leaf_value=-0.01782310461631248 0.0040398995464657394 0 0.021704196559210534 0 0 0.015126261140049252
leaf_weight=45.9235710054636 35.415607988834381 9.96711665391922 13.629669487476349 16.341214492917061 2.4269188195466986 23.605605855584145
leaf_count=225 152 41 59 71 10 102
internal_value=0 -0.00600325 0.0118181 -0.0136275 0.00864086 0.00948508
internal_weight=0 85.8616 23.5968 62.2648 61.4481 59.0212
internal_count=660 396 100 296 264 254
is_linear=0
shrinkage=0.05


Tree=45
num_leaves=6
num_cat=0
split_feature=22 12 10 21 19
split_gain=3.77398 1.7099 2.00701 1.20636 1.02662
threshold=1.5000000000000002 1.5000000000000002 1.5000000000000002 1.5000000000000002 1.5000000000000002
decision_type=2 2 2 2 2
left_child=3 2 -2 -1 -3
right_child=1 4 -4 -5 -6
leaf_value=-0.039296766888907049 -0.0045138803902598787 -0.0058520153082674588 0.014134753388503021 0 0.0066811126444936766
leaf_weight=6.6538827568292609 15.41279451549053 60.26808112859726 44.994680851697922 1.1408456414937971 18.453413620591164
leaf_count=53 70 255 195 6 81
internal_value=0 0.00212281 0.00856635 -0.0316385 -0.00223994
internal_weight=0 139.129 60.4075 7.79473 78.7215
internal_count=660 601 265 59 336
is_linear=0
shrinkage=0.05


Tree=46
num_leaves=8
num_cat=0
split_feature=6 19 14 14 12 19 23
split_gain=2.77144 4.69096 2.65664 2.35371 1.46172 0.884397 0.197641
threshold=2.5000000000000004 1.5000000000000002 1.5000000000000002 1.5000000000000002 1.5000000000000002 1.5000000000000002 1.5000000000000002
decision_type=2 2 2 2 2 2 2
left_child=1 3 -3 -1 5 -2 -6
right_child=4 2 -4 -5 6 -7 -8
leaf_value=-0.018466322406221061 0.023622960704640806 0.037051763734683628 0 0 -0.0038213230109415382 0 0.0034805813429827979
leaf_weight=43.530832871794701 16.879917919635776 7.6457245796918851 6.2557273805141449 27.928027130663395 7.9823134690523139 6.2426477968692771 30.199935004115105
leaf_count=204 73 34 27 131 33 28 130
internal_value=0 -0.00569515 0.0187298 -0.0113297 0.00813926 0.0179436 0.000619403
internal_weight=0 85.3603 13.9015 71.4589 61.3048 23.1226 38.1822
internal_count=660 396 61 335 264 101 163
is_linear=0
shrinkage=0.05


Tree=47
num_leaves=8
num_cat=0
split_feature=6 15 19 12 11 10 10
split_gain=2.66073 2.3888 3.1824 2.09077 0.701299 0.275938 0.0953885
threshold=1.5000000000000002 1.5000000000000002 1.5000000000000002 1.5000000000000002 1.5000000000000002 1.5000000000000002 2.5000000000000004
decision_type=2 2 2 2 2 2 2
left_child=4 2 -2 -3 6 -6 -1
right_child=1 3 -4 -5 5 -7 -8
leaf_value=-0.0055582420970796348 -0.010131659763478826 0.021382047907671758 0.017806038904337487 0.0015088671128390021 -0.003679726815425602 -0.032152266258801403 0.0021165022480466489
leaf_weight=6.2302963808178902 47.255527898669243 23.88544437289238 11.115943878889082 42.148592293262482 6.7256105169653893 6.6174667030572891 2.3704394847154617
leaf_count=33 201 104 49 181 46 36 10
internal_value=0 0.00298261 -0.0037589 0.0096549 -0.0155336 -0.0225438 0
internal_weight=0 124.406 58.3715 66.034 21.9438 13.3431 8.60074
internal_count=660 535 250 285 125 82 43
is_linear=0
shrinkage=0.05


Tree=48
num_leaves=6
num_cat=0
split_feature=22 4 7 21 0
split_gain=3.37051 2.78984 1.95387 1.16598 0.703836
threshold=1.5000000000000002 1.0000000180025095e-35 1.5000000000000002 1.5000000000000002 1.0000000180025095e-35
decision_type=2 2 2 2 2
left_child=3 4 -3 -1 -2
right_child=1 2 -4 -5 -6
leaf_value=-0.038193192506641285 -0.030015534253936379 -0.00061064409738834644 0.011109551913778187 0 0
leaf_weight=6.4015843942761412 6.7625588774681074 73.312147885560989 56.866551041603088 1.132787838578224 1.6398538649082182
leaf_count=53 29 314 251 6 7
internal_value=0 0.00197488 0.00417364 -0.0303899 -0.0235937
internal_weight=0 138.581 130.179 7.53437 8.40241
internal_count=660 601 565 59 36
is_linear=0
shrinkage=0.05


Tree=49
num_leaves=6
num_cat=0
split_feature=22 18 21 7 9
split_gain=3.11176 2.25136 1.12568 1.05313 0.924367
threshold=1.5000000000000002 1.5000000000000002 1.5000000000000002 1.5000000000000002 1.0000000180025095e-35
decision_type=2 2 2 2 2
left_child=2 4 -1 -3 -2
right_child=1 3 -4 -5 -6
leaf_value=-0.037402684941436726 -0.0027440299738841381 0 0 0.030685966774734175 0.0078745780229699178
leaf_weight=6.2354241237044326 97.568888708949089 8.2994741350412369 1.132787838578224 8.2703434228897095 24.355145320296288
leaf_count=53 414 37 6 48 102
internal_value=0 0.00183854 -0.0295515 0.0186274 -0.000169332
internal_weight=0 138.494 7.36821 16.5698 121.924
internal_count=660 601 59 85 516
is_linear=0
shrinkage=0.05


Tree=50
num_leaves=7
num_cat=0
split_feature=4 6 12 8 15 0
split_gain=2.37922 2.6815 2.24721 0.940089 0.825048 0.252304
threshold=1.0000000180025095e-35 1.5000000000000002 1.5000000000000002 1.0000000180025095e-35 1.5000000000000002 1.0000000180025095e-35
decision_type=2 2 2 2 2 2
left_child=4 3 -3 -2 5 -1
right_child=1 2 -4 -5 -6 -7
leaf_value=-0.047833425033176002 -0.018748263591508416 0.013326718753607464 -5.3898610284272612e-05 0 0 0
leaf_weight=2.588905602693556 17.478220552206043 47.460228383541107 68.820209532976151 3.0430469661951056 4.5981482118368149 1.5235693603754041
leaf_count=11 106 207 295 13 21 7
internal_value=0 0.0017662 0.00504818 -0.0138778 -0.0238382 -0.0385072
internal_weight=0 136.802 116.28 20.5213 8.71062 4.11247
internal_count=660 621 502 119 39 18
is_linear=0
shrinkage=0.05


Tree=51
num_leaves=6
num_cat=0
split_feature=22 18 17 7 14
split_gain=2.80268 2.07956 0.967192 0.964452 0.901543
threshold=1.5000000000000002 1.5000000000000002 1.0000000180025095e-35 1.5000000000000002 1.5000000000000002
decision_type=2 2 2 2 2
left_child=4 2 -2 -3 -1
right_child=1 3 -4 -5 -6
leaf_value=-0.040332963620484288 -0.005719770170001498 0 0.0031448646282596277 0.029639055714333187 0
leaf_weight=4.4486161768436423 51.566818192601204 8.2875977903604507 70.188125297427177 8.1080745011568069 2.701648585498333
leaf_count=37 214 37 302 48 22
internal_value=0 0.00168914 -0.000218265 0.0179262 -0.0284776
internal_weight=0 138.151 121.755 16.3957 7.15026
internal_count=660 601 516 85 59
is_linear=0
shrinkage=0.05


Tree=52
num_leaves=6
num_cat=0
split_feature=22 18 12 6 3
split_gain=2.63024 1.93828 1.50092 1.05112 0.475102
threshold=1.5000000000000002 1.5000000000000002 1.5000000000000002 2.5000000000000004 1.0000000180025095e-35
decision_type=2 2 2 2 2
left_child=4 3 -3 -2 -1
right_child=1 2 -4 -5 -6
leaf_value=-0.031507783269178698 -0.0043439614719139033 0.035906735219915074 2.4927409851045291e-05 0.0049825173946011353 0
leaf_weight=6.4473185762763014 72.956937000155449 5.9524733722209939 10.308185562491417 48.810644179582596 0.58427660912275303
leaf_count=55 314 33 52 202 4
internal_value=0 0.0016316 0.0173761 -0.000188028 -0.0277963
internal_weight=0 138.028 16.2607 121.768 7.0316
internal_count=660 601 85 516 59
is_linear=0
shrinkage=0.05


Tree=53
num_leaves=6
num_cat=0
split_feature=22 4 18 17 14
split_gain=2.44294 2.42461 1.70051 1.08266 0.894827
threshold=1.5000000000000002 1.0000000180025095e-35 1.5000000000000002 1.0000000180025095e-35 1.5000000000000002
decision_type=2 2 2 2 2
left_child=4 3 -3 -2 -1
right_child=1 2 -4 -5 -6
leaf_value=-0.039044269936159226 -0.044619644433463057 0.0010467426435247674 0.019111555101967777 0 0
leaf_weight=4.2451988011598578 2.6982505172491056 114.4127466827631 15.094271659851072 5.6357834488153458 2.6476287096738815
leaf_count=37 12 485 80 24 22
internal_value=0 0.00158397 0.00366566 -0.0223349 -0.027012
internal_weight=0 137.841 129.507 8.33403 6.89283
internal_count=660 601 565 36 59
is_linear=0
shrinkage=0.05


Tree=54
num_leaves=8
num_cat=0
split_feature=6 19 14 15 12 10 19
split_gain=1.9154 3.83473 2.42227 2.08665 1.13789 1.70586 0.894387
threshold=2.5000000000000004 1.5000000000000002 1.5000000000000002 1.5000000000000002 1.5000000000000002 1.5000000000000002 1.5000000000000002
decision_type=2 2 2 2 2 2 2
left_child=1 3 -3 -1 6 -6 -2
right_child=4 2 -4 -5 5 -7 -8
leaf_value=-0.018330715225465571 0.021148016868193745 0.03511768741722826 0 0 0.019504290893537043 -0.0045433205944330722 0
leaf_weight=35.981502041220665 16.572871476411823 7.4676222205162031 6.1914678663015366 34.261818110942841 8.5644717365503293 29.334119245409966 6.1074904948472968
leaf_count=176 73 34 27 159 35 128 28
internal_value=0 -0.00486554 0.0172995 -0.0100597 0.00671729 0 0.01541
internal_weight=0 83.9024 13.6591 70.2433 60.579 37.8986 22.6804
internal_count=660 396 61 335 264 163 101
is_linear=0
shrinkage=0.05


Tree=55
num_leaves=6
num_cat=0
split_feature=22 13 12 16 14
split_gain=2.23469 1.33443 5.4598 1.27362 0.851114
threshold=1.5000000000000002 1.5000000000000002 1.5000000000000002 1.5000000000000002 1.5000000000000002
decision_type=2 2 2 2 2
left_child=4 3 -3 -2 -1
right_child=1 2 -4 -5 -6
leaf_value=-0.038129523911921662 -0.012914414029854505 0.02373859648570148 -0.001840183287032309 0.0033186516315019477 0
leaf_weight=4.1004840880632392 24.703592389822006 26.970198139548302 70.695152074098587 15.095140561461447 2.6399429067969322
leaf_count=37 108 120 304 69 22
internal_value=0 0.00146976 0.00488562 -0.00560146 -0.0261365
internal_weight=0 137.464 97.6654 39.7987 6.74043
internal_count=660 601 424 177 59
is_linear=0
shrinkage=0.05


Tree=56
num_leaves=6
num_cat=0
split_feature=4 22 6 14 17
split_gain=2.1659 2.1792 1.49172 0.953517 0.853155
threshold=1.0000000180025095e-35 1.5000000000000002 1.5000000000000002 1.5000000000000002 1.0000000180025095e-35
decision_type=2 2 2 2 2
left_child=4 3 -3 -2 -1
right_child=1 2 -4 -5 -6
leaf_value=-0.043660934145520081 -0.036941107501945042 -0.0095642708828872804 0.0057082702292077609 0 -0.00085893236172783342
leaf_weight=2.7746518775820714 3.8801821321248999 15.606417685747145 113.45222863554955 2.4414944127202034 5.8347887918353081
leaf_count=13 36 75 490 20 26
internal_value=0 0.00159523 0.00341766 -0.0241663 -0.0229644
internal_weight=0 135.38 129.059 6.32168 8.60944
internal_count=660 621 565 56 39
is_linear=0
shrinkage=0.05


Tree=57
num_leaves=7
num_cat=0
split_feature=4 22 18 21 17 15
split_gain=2.03456 2.02271 1.4849 0.999595 0.77019 0.381915
threshold=1.0000000180025095e-35 1.5000000000000002 1.5000000000000002 1.5000000000000002 1.0000000180025095e-35 1.5000000000000002
decision_type=2 2 2 2 2 2
left_child=4 3 -3 -2 -1 -6
right_child=1 2 -4 -5 5 -7
leaf_value=-0.042290197515231866 -0.032481345652425324 0.00076553587349996856 0.017763117463371156 0 -0.016623550330429185 0.00046649407146181717
leaf_weight=2.7542873844504339 5.1553403958678237 114.1235429495573 14.844205841422079 1.0668065100908277 2.4683740884065628 3.3658449649810791
leaf_count=13 50 485 80 6 11 15
internal_value=0 0.00146641 0.00322829 -0.0235197 -0.022359 -0.00082234
internal_weight=0 135.19 128.968 6.22215 8.58851 5.83422
internal_count=660 621 565 56 39 26
is_linear=0
shrinkage=0.05


Tree=58
num_leaves=6
num_cat=0
split_feature=22 7 9 13 21
split_gain=1.80231 1.64081 2.37876 2.13118 1.02601
threshold=1.5000000000000002 1.5000000000000002 1.0000000180025095e-35 1.5000000000000002 1.5000000000000002
decision_type=2 2 2 2 2
left_child=4 3 -3 -2 -1
right_child=1 2 -4 -5 -6
leaf_value=-0.032946761793746525 -0.015139361029315788 0.00022741773945202288 0.023606903523690621 0.0017594996230282389 0
leaf_weight=5.337568223476409 24.933060273528099 43.471185892820358 15.967600792646406 52.732967838644981 1.0668065100908277
leaf_count=53 112 190 76 223 6
internal_value=0 0.00117736 0.00762203 -0.00315342 -0.0241386
internal_weight=0 137.105 59.4388 77.666 6.40437
internal_count=660 601 266 335 59
is_linear=0
shrinkage=0.05


Tree=59
num_leaves=7
num_cat=0
split_feature=4 22 6 21 17 15
split_gain=1.88972 1.72398 1.30324 0.928514 0.728494 0.349709
threshold=1.0000000180025095e-35 1.5000000000000002 1.5000000000000002 1.5000000000000002 1.0000000180025095e-35 1.5000000000000002
decision_type=2 2 2 2 2 2
left_child=4 3 -3 -2 -1 -6
right_child=1 2 -4 -5 5 -7
leaf_value=-0.041015871874458001 -0.031026952259314913 -0.0090556099893670441 0.0052264125513360078 0 -0.015915350243490441 0.00040974034214837833
leaf_weight=2.7258525565266591 4.9131381958723059 15.525558933615683 113.14050580561161 1.0668065100908277 2.4545705169439316 3.3606753125786781
leaf_count=13 50 75 490 6 11 15
internal_value=0 0.00142651 0.00306091 -0.0219767 -0.0215922 -0.000468649
internal_weight=0 134.646 128.666 5.97994 8.5411 5.81525
internal_count=660 621 565 56 39 26
is_linear=0
shrinkage=0.05


Tree=60
num_leaves=8
num_cat=0
split_feature=7 9 17 13 15 18 8
split_gain=1.46935 2.32179 5.60147 2.08272 2.1493 1.29607 1.16511
threshold=1.5000000000000002 1.0000000180025095e-35 1.0000000180025095e-35 1.5000000000000002 1.5000000000000002 1.5000000000000002 1.0000000180025095e-35
decision_type=2 2 2 2 2 2 2
left_child=3 5 -3 4 -1 -2 -5
right_child=1 2 -4 6 -6 -7 -8
leaf_value=-0.024784818684382912 -0.0032520547210029118 -0.0046830536593658618 0.047585774152376858 -0.0036756598507189757 0 0.023055532817866341 0.011384769070120832
leaf_weight=18.915654465556145 40.325913347303867 7.4823560416698465 8.5536492615938187 37.064010515809059 8.7730161994695681 4.2733888626098624 17.569324389100075
leaf_count=97 176 34 43 168 42 26 74
internal_value=0 0.00571233 0.021419 -0.00446642 -0.0154642 0 0.000386407
internal_weight=0 60.6353 16.036 82.322 27.6887 44.5993 54.6333
internal_count=660 279 77 381 139 202 242
is_linear=0
shrinkage=0.05


Tree=61
num_leaves=7
num_cat=0
split_feature=4 0 16 21 23 0
split_gain=1.75095 1.37348 2.56842 1.38421 0.456458 1.11799
threshold=1.0000000180025095e-35 1.0000000180025095e-35 1.5000000000000002 1.5000000000000002 1.5000000000000002 1.0000000180025095e-35
decision_type=2 2 2 2 2 2
left_child=4 2 -2 -3 -1 -6
right_child=1 3 -4 -5 5 -7
leaf_value=0 -0.0029340455739829299 -0.016382206044438175 0.011775073240219147 0.0052069987644225678 -0.034230668462655649 0
leaf_weight=1.0312419161200521 53.979170203208923 17.938574358820919 55.150574676692486 7.0173172727227202 5.8871996849775297 1.5661774054169653
leaf_count=5 235 108 245 33 26 8
internal_value=0 0.00134253 0.00408487 -0.00841849 -0.0208771 -0.0249803
internal_weight=0 134.086 109.13 24.9559 8.48462 7.45338
internal_count=660 621 480 141 39 34
is_linear=0
shrinkage=0.05


Tree=62
num_leaves=8
num_cat=0
split_feature=6 19 14 14 12 10 19
split_gain=1.32231 3.14509 2.24998 1.77681 1.02902 1.65153 0.806255
threshold=2.5000000000000004 1.5000000000000002 1.5000000000000002 1.5000000000000002 1.5000000000000002 1.5000000000000002 1.5000000000000002
decision_type=2 2 2 2 2 2 2
left_child=1 3 -3 -1 6 -6 -2
right_child=4 2 -4 -5 5 -7 -8
leaf_value=-0.015394153448416895 0.019254230003108178 0.033416990092471358 0 0 0.018450440488399524 -0.0054178270585124623 0
leaf_weight=41.754298783838749 16.296188697218899 7.30989822745323 6.1126256883144379 27.277729466557503 8.5366340428590757 29.060849100351334 6.0342736989259711
leaf_count=204 73 34 27 131 35 128 28
internal_value=0 -0.00421381 0.0159186 -0.0090137 0.00547138 0 0.0137275
internal_weight=0 82.4546 13.4225 69.032 59.9279 37.5975 22.3305
internal_count=660 396 61 335 264 163 101
is_linear=0
shrinkage=0.05


Tree=63
num_leaves=7
num_cat=0
split_feature=4 22 7 17 3 15
split_gain=1.58186 1.44913 1.24933 0.725234 0.391493 0.283373
threshold=1.0000000180025095e-35 1.5000000000000002 1.5000000000000002 1.0000000180025095e-35 1.0000000180025095e-35 1.5000000000000002
decision_type=2 2 2 2 2 2
left_child=3 4 -3 -1 -2 -5
right_child=1 2 -4 5 -6 -7
leaf_value=-0.038811282028111571 -0.024756016743869347 -0.00092545244252290992 0.008494362668321603 -0.014346508286506724 0 0.00095281992808958276
leaf_weight=2.6802347674965841 5.2159650176763526 72.431776955723763 55.498667754232883 2.4227713793516159 0.5328058823943137 3.3505667746067047
leaf_count=13 52 314 251 11 4 15
internal_value=0 0.00129006 0.00280743 -0.0198649 -0.0204805 0
internal_weight=0 133.679 127.93 8.45357 5.74877 5.77334
internal_count=660 621 565 39 56 26
is_linear=0
shrinkage=0.05


Tree=64
num_leaves=7
num_cat=0
split_feature=4 22 18 14 17 13
split_gain=1.46746 1.33082 1.13712 0.96166 0.681116 0.508118
threshold=1.0000000180025095e-35 1.5000000000000002 1.5000000000000002 1.5000000000000002 1.0000000180025095e-35 1.5000000000000002
decision_type=2 2 2 2 2 2
left_child=4 3 -3 -2 -1 -6
right_child=1 2 -4 -5 5 -7
leaf_value=-0.037639583242829212 -0.033733410463229481 0.00045632401778591302 0.015553076306464273 0 -0.018628302299484364 0.0045634581638011509
leaf_weight=2.6572037041187269 3.4070763587951651 113.46637052297592 14.400286369025705 2.2484095618128777 2.3986098989844322 3.3664456456899643
leaf_count=13 36 485 80 20 11 15
internal_value=0 0.00118892 0.00265201 -0.0198062 -0.0192141 0
internal_weight=0 133.522 127.867 5.65549 8.42226 5.76506
internal_count=660 621 565 56 39 26
is_linear=0
shrinkage=0.05


Tree=65
num_leaves=6
num_cat=0
split_feature=22 12 7 10 3
split_gain=1.21542 1.26774 2.45505 0.711749 0.405809
threshold=1.5000000000000002 1.5000000000000002 1.5000000000000002 2.5000000000000004 1.0000000180025095e-35
decision_type=2 2 2 2 2
left_child=4 2 -2 -3 -1
right_child=1 3 -4 -5 -6
leaf_value=-0.024984547384666368 -0.00075769719913560849 -0.0078061122003110816 0.018538549364773688 0.00080415790133165808 0
leaf_weight=5.3269433900713912 34.034673005342484 38.450478747487068 24.430987358093262 38.957109585404396 0.5258011296391486
leaf_count=55 153 166 112 170 4
internal_value=0 0.000870038 0.00664094 -0.00288012 -0.0206951
internal_weight=0 135.873 58.4657 77.4076 5.85274
internal_count=660 601 265 336 59
is_linear=0
shrinkage=0.05


Tree=66
num_leaves=7
num_cat=0
split_feature=4 8 19 19 23 0
split_gain=1.38468 1.15822 3.4551 1.08191 0.418657 1.02277
threshold=1.0000000180025095e-35 1.0000000180025095e-35 1.5000000000000002 1.5000000000000002 1.5000000000000002 1.0000000180025095e-35
decision_type=2 2 2 2 2 2
left_child=4 2 -2 -3 -1 -6
right_child=1 3 -4 -5 5 -7
leaf_value=0 -0.0072341058042170838 0.012069509350989686 0.017769103860399361 -0.0023055714955074378 -0.031790886286476513 0
leaf_weight=1.0160552859306333 69.622814975678921 35.985092580318451 15.651329152286051 11.883762970566748 5.8210648000240308 1.5461040362715719
leaf_count=5 336 158 71 56 26 8
internal_value=0 0.00113069 -0.00191267 0.0075035 -0.0187256 -0.0227666
internal_weight=0 133.143 85.2741 47.8689 8.38322 7.36717
internal_count=660 621 407 214 39 34
is_linear=0
shrinkage=0.05


Tree=67
num_leaves=7
num_cat=0
split_feature=22 12 13 14 15 20
split_gain=1.10612 1.1595 4.26482 0.843216 0.786821 0.00654701
threshold=1.5000000000000002 1.5000000000000002 1.5000000000000002 1.5000000000000002 2.5000000000000004 1.5000000000000002
decision_type=2 2 2 2 2 2
left_child=3 2 -2 -1 -3 -5
right_child=1 4 -4 5 -6 -7
leaf_value=-0.033130581556216031 -0.0047350002195080754 -0.00093858022758077503 0.021166935965954731 0.003052796710486637 -0.026248321216015853 0
leaf_weight=3.3584773391485205 31.810708589851856 74.621414795517921 26.492175586521626 0.75625246763229381 2.6247700005769721 1.6237981393933296
leaf_count=37 145 325 120 7 11 15
internal_value=0 0.000808834 0.00634988 -0.0199278 -0.00276206 0
internal_weight=0 135.549 58.3029 5.73853 77.2462 2.38005
internal_count=660 601 265 59 336 22
is_linear=0
shrinkage=0.05


Tree=68
num_leaves=8
num_cat=0
split_feature=6 19 14 14 19 20 20
split_gain=1.05218 2.64272 2.06074 1.56462 0.679492 5.66941 0.649799
threshold=2.5000000000000004 1.5000000000000002 1.5000000000000002 1.5000000000000002 1.5000000000000002 1.5000000000000002 1.5000000000000002
decision_type=2 2 2 2 2 2 2
left_child=1 3 -3 -1 6 -6 -2
right_child=4 2 -4 -5 5 -7 -8
leaf_value=-0.014397141051580273 0.01306138569617977 0.031570180722527839 -0.00015880627489660876 0 -0.026530586887577631 0.030736099444657508 0
leaf_weight=41.195652343332767 26.29076910763979 7.1996957436203939 6.086732879281044 27.121138319373131 9.9554249346256238 5.8926402479410163 17.379681378602982
leaf_count=204 115 34 27 131 45 28 76
internal_value=0 -0.00388796 0.0145411 -0.00835148 0.00477836 -0.00170945 0.00823767
internal_weight=0 81.6032 13.2864 68.3168 59.5185 15.8481 43.6705
internal_count=660 396 61 335 264 73 191
is_linear=0
shrinkage=0.05


Tree=69
num_leaves=7
num_cat=0
split_feature=4 12 13 15 17 13
split_gain=1.22978 1.01491 2.52323 0.773913 0.692373 0.420537
threshold=1.0000000180025095e-35 1.5000000000000002 1.5000000000000002 2.5000000000000004 1.0000000180025095e-35 1.5000000000000002
decision_type=2 2 2 2 2 2
left_child=4 2 -2 -3 -1 -6
right_child=1 3 -4 -5 5 -7
leaf_value=-0.035907956282220203 -0.0017896005454054054 -0.00043895328752975636 0.018012227777223205 -0.025251869782991893 -0.016784624452447224 0.004813502305602126
leaf_weight=2.6148303598165494 31.516754537820816 73.206483528017998 25.1693359836936 2.6316989660263053 2.3736175000667572 3.3554752990603447
leaf_count=13 159 334 117 11 11 15
internal_value=0 0.00104023 0.00629573 -0.00226815 -0.0177079 0
internal_weight=0 132.524 56.6861 75.8382 8.34392 5.72909
internal_count=660 621 276 345 39 26
is_linear=0
shrinkage=0.05


Tree=70
num_leaves=7
num_cat=0
split_feature=4 22 18 14 15 17
split_gain=1.14018 1.00294 0.963512 0.884405 0.693859 0.0839674
threshold=1.0000000180025095e-35 1.5000000000000002 1.5000000000000002 1.5000000000000002 1.5000000000000002 1.0000000180025095e-35
decision_type=2 2 2 2 2 2
left_child=4 3 -3 -2 -1 -6
right_child=1 2 -4 -5 5 -7
leaf_value=-0.030514233027371725 -0.031761418515095334 0.0001908472582356919 0.014189140320527713 0 -0.009529543578768996 0.0017341604120301125
leaf_weight=3.8005454242229444 3.1570379063487044 112.97371724247932 14.122514635324476 2.206428125500679 1.1676728501915929 3.3451807424426079
leaf_count=18 36 485 80 20 6 15
internal_value=0 0.000929168 0.00223525 -0.0176509 -0.0171373 0
internal_weight=0 132.46 127.096 5.36347 8.3134 4.51285
internal_count=660 621 565 56 39 21
is_linear=0
shrinkage=0.05


Tree=71
num_leaves=7
num_cat=0
split_feature=12 18 10 17 19 15
split_gain=0.934387 1.94321 0.808986 3.30719 1.96624 0.566553
threshold=1.5000000000000002 1.5000000000000002 2.5000000000000004 1.0000000180025095e-35 1.5000000000000002 2.5000000000000004
decision_type=2 2 2 2 2 2
left_child=1 5 4 -4 -2 -1
right_child=2 -3 3 -5 -6 -7
leaf_value=0 -0.014690632201404021 0.030870463525008541 -0.015148119478887041 0.013467552923229251 0.0095218863920356889 0.025596258106268047
leaf_weight=54.462842799723148 32.834398463368416 5.3209224939346305 16.275639817118645 22.737576052546501 7.7554512023925772 1.1785495132207859
leaf_count=259 157 33 71 100 35 5
internal_value=0 0.00435773 -0.00379249 0.000199774 -0.00874445 0.000439349
internal_weight=0 60.9623 79.6031 39.0132 40.5898 55.6414
internal_count=660 297 363 171 192 264
is_linear=0
shrinkage=0.05


Tree=72
num_leaves=8
num_cat=0
split_feature=6 13 21 14 14 19 19
split_gain=0.956318 1.02802 2.29212 0.959278 0.739698 3.49189 2.17893
threshold=1.5000000000000002 1.5000000000000002 1.5000000000000002 1.5000000000000002 1.5000000000000002 1.5000000000000002 1.5000000000000002
decision_type=2 2 2 2 2 2 2
left_child=1 2 -1 -3 5 -2 -6
right_child=4 3 -4 -5 6 -7 -8
leaf_value=-0.037393177039400434 -0.007281793548840643 0.016806716600609752 0.0040967824414740251 -0.010784496373820118 0.013239338118923692 0.019561913761440314 -0.0085184125408985772
leaf_weight=6.4108633026480675 57.712568804621696 4.2517148479819298 2.3159706890583038 6.8652068600058556 35.799061946570873 13.938924849033354 13.050148442387579
leaf_count=49 253 26 13 37 157 66 59
internal_value=0 -0.0100792 -0.0219528 0 0.00149967 -0.00117408 0.00636941
internal_weight=0 19.8438 8.72683 11.1169 120.501 71.6515 48.8492
internal_count=660 125 62 63 535 319 216
is_linear=0
shrinkage=0.05


Tree=73
num_leaves=7
num_cat=0
split_feature=4 12 3 10 23 0
split_gain=1.05958 0.904713 0.973516 0.830904 0.37676 0.944277
threshold=1.0000000180025095e-35 1.5000000000000002 1.0000000180025095e-35 2.5000000000000004 1.5000000000000002 1.0000000180025095e-35
decision_type=2 2 2 2 2 2
left_child=4 2 -2 -3 -1 -6
right_child=1 3 -4 -5 5 -7
leaf_value=0 0.0089743426019247702 -0.007464596307288668 -0.0071930799942098184 0.0022760647815265023 -0.029440286005406147 0
leaf_weight=1.000693619251251 49.108302876353264 39.178322475403547 7.1965138092637053 36.368441939353943 5.7290579676628095 1.5184081718325613
leaf_count=5 243 185 33 160 26 8
internal_value=0 0.00094744 0.00594594 -0.00215374 -0.0165389 -0.0205165
internal_weight=0 131.852 56.3048 75.5468 8.24816 7.24747
internal_count=660 621 276 345 39 34
is_linear=0
shrinkage=0.05


Tree=74
num_leaves=6
num_cat=0
split_feature=22 7 9 8 14
split_gain=0.884967 0.913712 1.86617 0.954034 0.779153
threshold=1.5000000000000002 1.5000000000000002 1.0000000180025095e-35 1.0000000180025095e-35 1.5000000000000002
decision_type=2 2 2 2 2
left_child=4 3 -3 -2 -1
right_child=1 2 -4 -5 -6
leaf_value=-0.031464320037622499 -0.0066013297952184323 0 0.020031185534250633 0.0045814006587310248 0
leaf_weight=3.1412497945129862 52.761469528079033 42.821645587682724 15.285849198698996 23.668953537940979 2.3465883359313011
leaf_count=37 235 190 76 100 22
internal_value=0 0.000667824 0.00562356 -0.00247808 -0.0182124
internal_weight=0 134.538 58.1075 76.4304 5.48784
internal_count=660 601 266 335 59
is_linear=0
shrinkage=0.05


Tree=75
num_leaves=8
num_cat=0
split_feature=6 2 12 13 21 14 15
split_gain=0.833021 1.55738 1.17283 0.961402 2.17657 0.873846 0.489134
threshold=1.5000000000000002 1.0000000180025095e-35 1.5000000000000002 1.5000000000000002 1.5000000000000002 1.5000000000000002 1.5000000000000002
decision_type=2 2 2 2 2 2 2
left_child=3 6 -3 4 -1 -5 -2
right_child=1 2 -4 5 -6 -7 -8
leaf_value=-0.036454704886675675 0 0.0054038677153442835 -0.0052297655732894384 0.01627280959515981 0.0038533196370778506 -0.010085687295317712 0.022431998366930973
leaf_weight=6.2553495019674301 7.2735366746783265 41.225666388869286 62.052225992083549 4.245991051197052 2.3181156814098358 6.8199463486671448 9.5864762365818024
leaf_count=49 33 187 273 26 13 37 42
internal_value=0 0.00139656 -0.00049451 -0.00945804 -0.0210693 0 0.0151591
internal_weight=0 120.138 103.278 19.6394 8.57347 11.0659 16.86
internal_count=660 535 460 125 62 63 75
is_linear=0
shrinkage=0.05


Tree=76
num_leaves=6
num_cat=0
split_feature=4 6 2 17 8
split_gain=0.957066 0.907939 1.61622 0.657937 0.506426
threshold=1.0000000180025095e-35 1.5000000000000002 1.0000000180025095e-35 1.0000000180025095e-35 1.0000000180025095e-35
decision_type=2 2 2 2 2
left_child=3 4 -3 -1 -2
right_child=1 2 -4 -5 -6
leaf_value=-0.033259894877573776 -0.012634379470995636 0.017303218142871082 0 0 0
leaf_weight=2.5450521335005742 15.586543675512077 15.849224314093588 97.036642782390118 5.6577202305197716 2.9480319768190375
leaf_count=13 106 70 432 26 13
internal_value=0 0.000935539 0.00296936 -0.015729 -0.00840988
internal_weight=0 131.42 112.886 8.20277 18.5346
internal_count=660 621 502 39 119
is_linear=0
shrinkage=0.05


Tree=77
num_leaves=7
num_cat=0
split_feature=4 7 3 19 17 13
split_gain=0.904234 0.748252 1.24703 0.764406 0.60774 0.351262
threshold=1.0000000180025095e-35 1.5000000000000002 1.0000000180025095e-35 1.5000000000000002 1.0000000180025095e-35 1.5000000000000002
decision_type=2 2 2 2 2 2
left_child=4 2 -2 -3 -1 -6
right_child=1 3 -4 -5 5 -7
leaf_value=-0.032288946847192038 0 0.00065567395842358643 -0.019178521969903457 0.015431983058593569 -0.015054907607992643 0.0053599002441358208
leaf_weight=2.5211865752935392 67.520322170108557 41.435571759939194 8.1882683895528299 14.159636676311491 2.3253596052527428 3.3323606252670288
leaf_count=13 323 192 36 70 11 15
internal_value=0 0.000906965 -0.00184819 0.00550872 -0.0153109 0
internal_weight=0 131.304 75.7086 55.5952 8.17891 5.65772
internal_count=660 621 359 262 39 26
is_linear=0
shrinkage=0.05


Tree=78
num_leaves=8
num_cat=0
split_feature=6 10 17 1 10 1 1
split_gain=0.779107 1.46466 1.77671 0.777641 0.672627 0.714352 0.136822
threshold=2.5000000000000004 2.5000000000000004 1.0000000180025095e-35 1.5000000000000002 2.5000000000000004 1.5000000000000002 1.5000000000000002
decision_type=2 2 2 2 2 2 2
left_child=1 3 -3 -1 6 -6 -2
right_child=4 2 -4 -5 5 -7 -8
leaf_value=-0.0033959870843007656 0.012059873585184811 -0.0069329995676421646 0.015579028247741128 -0.02026973119934173 -0.0028499287000074733 0.017021227201080177 0
leaf_weight=38.296757336705923 20.118895038962368 12.872338540852072 16.92113584280014 12.332507751882074 31.866181172430515 4.2427354529499999 2.7152075469493857
leaf_count=205 86 56 75 60 147 19 12
internal_value=0 -0.00332439 0.00431965 -0.00878761 0.00418114 0 0.0107014
internal_weight=0 80.4227 29.7935 50.6293 58.943 36.1089 22.8341
internal_count=660 396 131 265 264 166 98
is_linear=0
shrinkage=0.05


Tree=79
num_leaves=8
num_cat=0
split_feature=12 7 16 15 10 6 10
split_gain=0.798985 1.87754 2.91024 0.642721 0.911558 0.342753 0.117693
threshold=1.5000000000000002 1.5000000000000002 1.5000000000000002 2.5000000000000004 2.5000000000000004 1.5000000000000002 2.5000000000000004
decision_type=2 2 2 2 2 2 2
left_child=1 5 -3 4 -2 -1 -5
right_child=3 2 -4 6 -6 -7 -8
leaf_value=-0.010083770044697904 -0.0073849565765011244 0 0.033668335388900322 0 0.0029217074053709833 0 -0.032822022861593435
leaf_weight=8.8176680393517 38.986809067428112 13.891600422561169 10.363003496080637 1.1909099221229544 37.365750148892403 27.177181981503963 1.4288307875394821
leaf_count=59 187 63 54 5 165 121 6
internal_value=0 0.00414546 0.0148976 -0.00343735 -0.00172208 -0.00195505 -0.0253292
internal_weight=0 60.2495 24.2546 78.9723 76.3526 35.9949 2.61974
internal_count=660 297 117 363 352 180 11
is_linear=0
shrinkage=0.05


end of trees

feature_importances:
Tumor_diameter=44
AFP=37
CRP=35
Tumor_number=32
Neu=32
BCLC=27
NLR=27
Etiology=26
ALBI=25
Vascular_invasion=23
AST=23
ALT=22
PLT=20
TBIL=18
Metastasis=15
Local_therapy=11
Age=9
Comorbidity=8
Gender=6
INR=6
Ly=4
PIVKA_II=4
ALB=2

parameters:
[boosting: gbdt]
[objective: binary]
[metric: binary_logloss]
[tree_learner: serial]
[device_type: cpu]
[data: ]
[valid: ]
[num_iterations: 80]
[learning_rate: 0.05]
[num_leaves: 8]
[num_threads: -1]
[deterministic: 0]
[force_col_wise: 0]
[force_row_wise: 0]
[histogram_pool_size: -1]
[max_depth: 3]
[min_data_in_leaf: 5]
[min_sum_hessian_in_leaf: 0.001]
[bagging_fraction: 0.8]
[pos_bagging_fraction: 1]
[neg_bagging_fraction: 1]
[bagging_freq: 0]
[bagging_seed: 18467]
[feature_fraction: 0.6]
[feature_fraction_bynode: 1]
[feature_fraction_seed: 26500]
[extra_trees: 0]
[extra_seed: 15724]
[early_stopping_round: 0]
[first_metric_only: 0]
[max_delta_step: 0]
[lambda_l1: 1]
[lambda_l2: 1]
[linear_lambda: 0]
[min_gain_to_split: 0]
[drop_rate: 0.1]
[max_drop: 50]
[skip_drop: 0.5]
[xgboost_dart_mode: 0]
[uniform_drop: 0]
[drop_seed: 6334]
[top_rate: 0.2]
[other_rate: 0.1]
[min_data_per_group: 100]
[max_cat_threshold: 32]
[cat_l2: 10]
[cat_smooth: 10]
[max_cat_to_onehot: 4]
[top_k: 20]
[monotone_constraints: ]
[monotone_constraints_method: basic]
[monotone_penalty: 0]
[feature_contri: ]
[forcedsplits_filename: ]
[refit_decay_rate: 0.9]
[cegb_tradeoff: 1]
[cegb_penalty_split: 0]
[cegb_penalty_feature_lazy: ]
[cegb_penalty_feature_coupled: ]
[path_smooth: 0]
[interaction_constraints: ]
[verbosity: -1]
[saved_feature_importance_type: 0]
[linear_tree: 0]
[max_bin: 255]
[max_bin_by_feature: ]
[min_data_in_bin: 3]
[bin_construct_sample_cnt: 200000]
[data_random_seed: 41]
[is_enable_sparse: 1]
[enable_bundle: 1]
[use_missing: 1]
[zero_as_missing: 0]
[feature_pre_filter: 1]
[pre_partition: 0]
[two_round: 0]
[header: 0]
[label_column: ]
[weight_column: ]
[group_column: ]
[ignore_column: ]
[categorical_feature: ]
[forcedbins_filename: ]
[precise_float_parser: 0]
[objective_seed: 19169]
[num_class: 1]
[is_unbalance: 0]
[scale_pos_weight: 1]
[sigmoid: 1]
[boost_from_average: 1]
[reg_sqrt: 0]
[alpha: 0.9]
[fair_c: 1]
[poisson_max_delta_step: 0.7]
[tweedie_variance_power: 1.5]
[lambdarank_truncation_level: 30]
[lambdarank_norm: 1]
[label_gain: ]
[eval_at: ]
[multi_error_top_k: 1]
[auc_mu_weights: ]
[num_machines: 1]
[local_listen_port: 12400]
[time_out: 120]
[machine_list_filename: ]
[machines: ]
[gpu_platform_id: -1]
[gpu_device_id: -1]
[gpu_use_dp: 0]
[num_gpu: 1]

end of parameters

pandas_categorical:[]
